digraph Tree {
node [shape=box] ;
0 [label="Income <= 113.5\ngini = 0.168\nsamples = 4000\nvalue = [3630, 370]"] ;
1 [label="CCAvg <= 2.95\ngini = 0.038\nsamples = 3224\nvalue = [3162, 62]"] ;
0 -> 1 [labeldistance=2.5, labelangle=45, headlabel="True"] ;
2 [label="Income <= 106.5\ngini = 0.006\nsamples = 2994\nvalue = [2985, 9]"] ;
1 -> 2 ;
3 [label="gini = 0.0\nsamples = 2924\nvalue = [2924, 0]"] ;
2 -> 3 ;
4 [label="Income <= 111.5\ngini = 0.224\nsamples = 70\nvalue = [61, 9]"] ;
2 -> 4 ;
5 [label="CCAvg <= 2.45\ngini = 0.342\nsamples = 32\nvalue = [25, 7]"] ;
4 -> 5 ;
6 [label="Income <= 110.5\ngini = 0.285\nsamples = 29\nvalue = [24, 5]"] ;
5 -> 6 ;
7 [label="CCAvg <= 1.75\ngini = 0.18\nsamples = 20\nvalue = [18, 2]"] ;
6 -> 7 ;
8 [label="gini = 0.0\nsamples = 8\nvalue = [8, 0]"] ;
7 -> 8 ;
9 [label="CCAvg <= 1.95\ngini = 0.278\nsamples = 12\nvalue = [10, 2]"] ;
7 -> 9 ;
10 [label="CCAvg <= 1.85\ngini = 0.48\nsamples = 5\nvalue = [3, 2]"] ;
9 -> 10 ;
11 [label="Education <= 1.5\ngini = 0.375\nsamples = 4\nvalue = [3, 1]"] ;
10 -> 11 ;
12 [label="gini = 0.0\nsamples = 1\nvalue = [0, 1]"] ;
11 -> 12 ;
13 [label="gini = 0.0\nsamples = 3\nvalue = [3, 0]"] ;
11 -> 13 ;
14 [label="gini = 0.0\nsamples = 1\nvalue = [0, 1]"] ;
10 -> 14 ;
15 [label="gini = 0.0\nsamples = 7\nvalue = [7, 0]"] ;
9 -> 15 ;
16 [label="Online <= 0.5\ngini = 0.444\nsamples = 9\nvalue = [6, 3]"] ;
6 -> 16 ;
17 [label="gini = 0.0\nsamples = 5\nvalue = [5, 0]"] ;
16 -> 17 ;
18 [label="CCAvg <= 1.25\ngini = 0.375\nsamples = 4\nvalue = [1, 3]"] ;
16 -> 18 ;
19 [label="gini = 0.0\nsamples = 3\nvalue = [0, 3]"] ;
18 -> 19 ;
20 [label="gini = 0.0\nsamples = 1\nvalue = [1, 0]"] ;
18 -> 20 ;
21 [label="Education <= 2.0\ngini = 0.444\nsamples = 3\nvalue = [1, 2]"] ;
5 -> 21 ;
22 [label="gini = 0.0\nsamples = 1\nvalue = [1, 0]"] ;
21 -> 22 ;
23 [label="gini = 0.0\nsamples = 2\nvalue = [0, 2]"] ;
21 -> 23 ;
24 [label="Education <= 1.5\ngini = 0.1\nsamples = 38\nvalue = [36, 2]"] ;
4 -> 24 ;
25 [label="gini = 0.0\nsamples = 20\nvalue = [20, 0]"] ;
24 -> 25 ;
26 [label="CCAvg <= 0.7\ngini = 0.198\nsamples = 18\nvalue = [16, 2]"] ;
24 -> 26 ;
27 [label="Online <= 0.5\ngini = 0.5\nsamples = 2\nvalue = [1, 1]"] ;
26 -> 27 ;
28 [label="gini = 0.0\nsamples = 1\nvalue = [1, 0]"] ;
27 -> 28 ;
29 [label="gini = 0.0\nsamples = 1\nvalue = [0, 1]"] ;
27 -> 29 ;
30 [label="Education <= 2.5\ngini = 0.117\nsamples = 16\nvalue = [15, 1]"] ;
26 -> 30 ;
31 [label="CCAvg <= 1.75\ngini = 0.32\nsamples = 5\nvalue = [4, 1]"] ;
30 -> 31 ;
32 [label="gini = 0.0\nsamples = 1\nvalue = [0, 1]"] ;
31 -> 32 ;
33 [label="gini = 0.0\nsamples = 4\nvalue = [4, 0]"] ;
31 -> 33 ;
34 [label="gini = 0.0\nsamples = 11\nvalue = [11, 0]"] ;
30 -> 34 ;
35 [label="CD Account <= 0.5\ngini = 0.355\nsamples = 230\nvalue = [177, 53]"] ;
1 -> 35 ;
36 [label="Income <= 92.5\ngini = 0.295\nsamples = 211\nvalue = [173, 38]"] ;
35 -> 36 ;
37 [label="Income <= 82.5\ngini = 0.14\nsamples = 132\nvalue = [122, 10]"] ;
36 -> 37 ;
38 [label="CCAvg <= 3.55\ngini = 0.067\nsamples = 87\nvalue = [84, 3]"] ;
37 -> 38 ;
39 [label="CCAvg <= 3.45\ngini = 0.157\nsamples = 35\nvalue = [32, 3]"] ;
38 -> 39 ;
40 [label="Education <= 1.5\ngini = 0.111\nsamples = 34\nvalue = [32, 2]"] ;
39 -> 40 ;
41 [label="gini = 0.0\nsamples = 17\nvalue = [17, 0]"] ;
40 -> 41 ;
42 [label="Education <= 2.5\ngini = 0.208\nsamples = 17\nvalue = [15, 2]"] ;
40 -> 42 ;
43 [label="CCAvg <= 3.05\ngini = 0.444\nsamples = 6\nvalue = [4, 2]"] ;
42 -> 43 ;
44 [label="gini = 0.0\nsamples = 3\nvalue = [3, 0]"] ;
43 -> 44 ;
45 [label="Income <= 81.5\ngini = 0.444\nsamples = 3\nvalue = [1, 2]"] ;
43 -> 45 ;
46 [label="gini = 0.0\nsamples = 2\nvalue = [0, 2]"] ;
45 -> 46 ;
47 [label="gini = 0.0\nsamples = 1\nvalue = [1, 0]"] ;
45 -> 47 ;
48 [label="gini = 0.0\nsamples = 11\nvalue = [11, 0]"] ;
42 -> 48 ;
49 [label="gini = 0.0\nsamples = 1\nvalue = [0, 1]"] ;
39 -> 49 ;
50 [label="gini = 0.0\nsamples = 52\nvalue = [52, 0]"] ;
38 -> 50 ;
51 [label="Income <= 83.5\ngini = 0.263\nsamples = 45\nvalue = [38, 7]"] ;
37 -> 51 ;
52 [label="CCAvg <= 4.15\ngini = 0.48\nsamples = 10\nvalue = [6, 4]"] ;
51 -> 52 ;
53 [label="CCAvg <= 3.2\ngini = 0.5\nsamples = 8\nvalue = [4, 4]"] ;
52 -> 53 ;
54 [label="gini = 0.0\nsamples = 1\nvalue = [1, 0]"] ;
53 -> 54 ;
55 [label="Securities Account <= 0.5\ngini = 0.49\nsamples = 7\nvalue = [3, 4]"] ;
53 -> 55 ;
56 [label="Education <= 2.5\ngini = 0.444\nsamples = 6\nvalue = [2, 4]"] ;
55 -> 56 ;
57 [label="gini = 0.0\nsamples = 3\nvalue = [0, 3]"] ;
56 -> 57 ;
58 [label="CCAvg <= 3.5\ngini = 0.444\nsamples = 3\nvalue = [2, 1]"] ;
56 -> 58 ;
59 [label="gini = 0.0\nsamples = 1\nvalue = [0, 1]"] ;
58 -> 59 ;
60 [label="gini = 0.0\nsamples = 2\nvalue = [2, 0]"] ;
58 -> 60 ;
61 [label="gini = 0.0\nsamples = 1\nvalue = [1, 0]"] ;
55 -> 61 ;
62 [label="gini = 0.0\nsamples = 2\nvalue = [2, 0]"] ;
52 -> 62 ;
63 [label="CCAvg <= 3.65\ngini = 0.157\nsamples = 35\nvalue = [32, 3]"] ;
51 -> 63 ;
64 [label="Online <= 0.5\ngini = 0.355\nsamples = 13\nvalue = [10, 3]"] ;
63 -> 64 ;
65 [label="CCAvg <= 3.35\ngini = 0.5\nsamples = 6\nvalue = [3, 3]"] ;
64 -> 65 ;
66 [label="gini = 0.0\nsamples = 2\nvalue = [2, 0]"] ;
65 -> 66 ;
67 [label="Income <= 84.5\ngini = 0.375\nsamples = 4\nvalue = [1, 3]"] ;
65 -> 67 ;
68 [label="gini = 0.0\nsamples = 1\nvalue = [1, 0]"] ;
67 -> 68 ;
69 [label="gini = 0.0\nsamples = 3\nvalue = [0, 3]"] ;
67 -> 69 ;
70 [label="gini = 0.0\nsamples = 7\nvalue = [7, 0]"] ;
64 -> 70 ;
71 [label="gini = 0.0\nsamples = 22\nvalue = [22, 0]"] ;
63 -> 71 ;
72 [label="Education <= 1.5\ngini = 0.458\nsamples = 79\nvalue = [51, 28]"] ;
36 -> 72 ;
73 [label="CCAvg <= 3.75\ngini = 0.13\nsamples = 43\nvalue = [40, 3]"] ;
72 -> 73 ;
74 [label="Income <= 107.5\ngini = 0.42\nsamples = 10\nvalue = [7, 3]"] ;
73 -> 74 ;
75 [label="Income <= 102.5\ngini = 0.5\nsamples = 6\nvalue = [3, 3]"] ;
74 -> 75 ;
76 [label="gini = 0.0\nsamples = 3\nvalue = [3, 0]"] ;
75 -> 76 ;
77 [label="gini = 0.0\nsamples = 3\nvalue = [0, 3]"] ;
75 -> 77 ;
78 [label="gini = 0.0\nsamples = 4\nvalue = [4, 0]"] ;
74 -> 78 ;
79 [label="gini = 0.0\nsamples = 33\nvalue = [33, 0]"] ;
73 -> 79 ;
80 [label="CCAvg <= 4.35\ngini = 0.424\nsamples = 36\nvalue = [11, 25]"] ;
72 -> 80 ;
81 [label="CCAvg <= 3.45\ngini = 0.32\nsamples = 25\nvalue = [5, 20]"] ;
80 -> 81 ;
82 [label="CCAvg <= 3.25\ngini = 0.494\nsamples = 9\nvalue = [4, 5]"] ;
81 -> 82 ;
83 [label="Education <= 2.5\ngini = 0.32\nsamples = 5\nvalue = [1, 4]"] ;
82 -> 83 ;
84 [label="gini = 0.0\nsamples = 3\nvalue = [0, 3]"] ;
83 -> 84 ;
85 [label="Income <= 97.0\ngini = 0.5\nsamples = 2\nvalue = [1, 1]"] ;
83 -> 85 ;
86 [label="gini = 0.0\nsamples = 1\nvalue = [1, 0]"] ;
85 -> 86 ;
87 [label="gini = 0.0\nsamples = 1\nvalue = [0, 1]"] ;
85 -> 87 ;
88 [label="Education <= 2.5\ngini = 0.375\nsamples = 4\nvalue = [3, 1]"] ;
82 -> 88 ;
89 [label="gini = 0.0\nsamples = 3\nvalue = [3, 0]"] ;
88 -> 89 ;
90 [label="gini = 0.0\nsamples = 1\nvalue = [0, 1]"] ;
88 -> 90 ;
91 [label="Income <= 106.0\ngini = 0.117\nsamples = 16\nvalue = [1, 15]"] ;
81 -> 91 ;
92 [label="gini = 0.0\nsamples = 11\nvalue = [0, 11]"] ;
91 -> 92 ;
93 [label="Education <= 2.5\ngini = 0.32\nsamples = 5\nvalue = [1, 4]"] ;
91 -> 93 ;
94 [label="gini = 0.0\nsamples = 2\nvalue = [0, 2]"] ;
93 -> 94 ;
95 [label="Income <= 109.0\ngini = 0.444\nsamples = 3\nvalue = [1, 2]"] ;
93 -> 95 ;
96 [label="gini = 0.0\nsamples = 1\nvalue = [1, 0]"] ;
95 -> 96 ;
97 [label="gini = 0.0\nsamples = 2\nvalue = [0, 2]"] ;
95 -> 97 ;
98 [label="CCAvg <= 4.6\ngini = 0.496\nsamples = 11\nvalue = [6, 5]"] ;
80 -> 98 ;
99 [label="gini = 0.0\nsamples = 6\nvalue = [6, 0]"] ;
98 -> 99 ;
100 [label="gini = 0.0\nsamples = 5\nvalue = [0, 5]"] ;
98 -> 100 ;
101 [label="CCAvg <= 3.95\ngini = 0.332\nsamples = 19\nvalue = [4, 15]"] ;
35 -> 101 ;
102 [label="gini = 0.0\nsamples = 9\nvalue = [0, 9]"] ;
101 -> 102 ;
103 [label="Income <= 85.0\ngini = 0.48\nsamples = 10\nvalue = [4, 6]"] ;
101 -> 103 ;
104 [label="gini = 0.0\nsamples = 1\nvalue = [1, 0]"] ;
103 -> 104 ;
105 [label="CCAvg <= 4.05\ngini = 0.444\nsamples = 9\nvalue = [3, 6]"] ;
103 -> 105 ;
106 [label="gini = 0.0\nsamples = 1\nvalue = [1, 0]"] ;
105 -> 106 ;
107 [label="Education <= 1.5\ngini = 0.375\nsamples = 8\nvalue = [2, 6]"] ;
105 -> 107 ;
108 [label="CCAvg <= 4.25\ngini = 0.48\nsamples = 5\nvalue = [2, 3]"] ;
107 -> 108 ;
109 [label="gini = 0.0\nsamples = 3\nvalue = [0, 3]"] ;
108 -> 109 ;
110 [label="gini = 0.0\nsamples = 2\nvalue = [2, 0]"] ;
108 -> 110 ;
111 [label="gini = 0.0\nsamples = 3\nvalue = [0, 3]"] ;
107 -> 111 ;
112 [label="Education <= 1.5\ngini = 0.479\nsamples = 776\nvalue = [468, 308]"] ;
0 -> 112 [labeldistance=2.5, labelangle=-45, headlabel="False"] ;
113 [label="CD Account <= 0.5\ngini = 0.193\nsamples = 508\nvalue = [453, 55]"] ;
112 -> 113 ;
114 [label="CCAvg <= 6.633\ngini = 0.147\nsamples = 476\nvalue = [438, 38]"] ;
113 -> 114 ;
115 [label="CCAvg <= 6.55\ngini = 0.176\nsamples = 379\nvalue = [342, 37]"] ;
114 -> 115 ;
116 [label="CCAvg <= 4.367\ngini = 0.172\nsamples = 378\nvalue = [342, 36]"] ;
115 -> 116 ;
117 [label="Income <= 121.5\ngini = 0.142\nsamples = 286\nvalue = [264, 22]"] ;
116 -> 117 ;
118 [label="CCAvg <= 3.45\ngini = 0.049\nsamples = 40\nvalue = [39, 1]"] ;
117 -> 118 ;
119 [label="gini = 0.0\nsamples = 34\nvalue = [34, 0]"] ;
118 -> 119 ;
120 [label="Income <= 114.5\ngini = 0.278\nsamples = 6\nvalue = [5, 1]"] ;
118 -> 120 ;
121 [label="gini = 0.0\nsamples = 1\nvalue = [0, 1]"] ;
120 -> 121 ;
122 [label="gini = 0.0\nsamples = 5\nvalue = [5, 0]"] ;
120 -> 122 ;
123 [label="CCAvg <= 2.75\ngini = 0.156\nsamples = 246\nvalue = [225, 21]"] ;
117 -> 123 ;
124 [label="CCAvg <= 2.55\ngini = 0.195\nsamples = 137\nvalue = [122, 15]"] ;
123 -> 124 ;
125 [label="Income <= 140.5\ngini = 0.17\nsamples = 128\nvalue = [116, 12]"] ;
124 -> 125 ;
126 [label="Income <= 130.5\ngini = 0.234\nsamples = 59\nvalue = [51, 8]"] ;
125 -> 126 ;
127 [label="Online <= 0.5\ngini = 0.157\nsamples = 35\nvalue = [32, 3]"] ;
126 -> 127 ;
128 [label="gini = 0.0\nsamples = 13\nvalue = [13, 0]"] ;
127 -> 128 ;
129 [label="CCAvg <= 2.3\ngini = 0.236\nsamples = 22\nvalue = [19, 3]"] ;
127 -> 129 ;
130 [label="Income <= 123.5\ngini = 0.18\nsamples = 20\nvalue = [18, 2]"] ;
129 -> 130 ;
131 [label="CCAvg <= 0.95\ngini = 0.346\nsamples = 9\nvalue = [7, 2]"] ;
130 -> 131 ;
132 [label="CCAvg <= 0.25\ngini = 0.245\nsamples = 7\nvalue = [6, 1]"] ;
131 -> 132 ;
133 [label="CCAvg <= 0.1\ngini = 0.444\nsamples = 3\nvalue = [2, 1]"] ;
132 -> 133 ;
134 [label="gini = 0.0\nsamples = 1\nvalue = [1, 0]"] ;
133 -> 134 ;
135 [label="gini = 0.5\nsamples = 2\nvalue = [1, 1]"] ;
133 -> 135 ;
136 [label="gini = 0.0\nsamples = 4\nvalue = [4, 0]"] ;
132 -> 136 ;
137 [label="Income <= 122.5\ngini = 0.5\nsamples = 2\nvalue = [1, 1]"] ;
131 -> 137 ;
138 [label="gini = 0.0\nsamples = 1\nvalue = [1, 0]"] ;
137 -> 138 ;
139 [label="gini = 0.0\nsamples = 1\nvalue = [0, 1]"] ;
137 -> 139 ;
140 [label="gini = 0.0\nsamples = 11\nvalue = [11, 0]"] ;
130 -> 140 ;
141 [label="gini = 0.5\nsamples = 2\nvalue = [1, 1]"] ;
129 -> 141 ;
142 [label="CCAvg <= 0.35\ngini = 0.33\nsamples = 24\nvalue = [19, 5]"] ;
126 -> 142 ;
143 [label="gini = 0.0\nsamples = 5\nvalue = [5, 0]"] ;
142 -> 143 ;
144 [label="CCAvg <= 0.55\ngini = 0.388\nsamples = 19\nvalue = [14, 5]"] ;
142 -> 144 ;
145 [label="Online <= 0.5\ngini = 0.444\nsamples = 3\nvalue = [1, 2]"] ;
144 -> 145 ;
146 [label="gini = 0.0\nsamples = 1\nvalue = [0, 1]"] ;
145 -> 146 ;
147 [label="Income <= 139.5\ngini = 0.5\nsamples = 2\nvalue = [1, 1]"] ;
145 -> 147 ;
148 [label="gini = 0.0\nsamples = 1\nvalue = [0, 1]"] ;
147 -> 148 ;
149 [label="gini = 0.0\nsamples = 1\nvalue = [1, 0]"] ;
147 -> 149 ;
150 [label="Income <= 134.5\ngini = 0.305\nsamples = 16\nvalue = [13, 3]"] ;
144 -> 150 ;
151 [label="Income <= 133.5\ngini = 0.5\nsamples = 6\nvalue = [3, 3]"] ;
150 -> 151 ;
152 [label="CCAvg <= 1.45\ngini = 0.48\nsamples = 5\nvalue = [3, 2]"] ;
151 -> 152 ;
153 [label="Income <= 131.5\ngini = 0.375\nsamples = 4\nvalue = [3, 1]"] ;
152 -> 153 ;
154 [label="CCAvg <= 0.75\ngini = 0.5\nsamples = 2\nvalue = [1, 1]"] ;
153 -> 154 ;
155 [label="gini = 0.0\nsamples = 1\nvalue = [0, 1]"] ;
154 -> 155 ;
156 [label="gini = 0.0\nsamples = 1\nvalue = [1, 0]"] ;
154 -> 156 ;
157 [label="gini = 0.0\nsamples = 2\nvalue = [2, 0]"] ;
153 -> 157 ;
158 [label="gini = 0.0\nsamples = 1\nvalue = [0, 1]"] ;
152 -> 158 ;
159 [label="gini = 0.0\nsamples = 1\nvalue = [0, 1]"] ;
151 -> 159 ;
160 [label="gini = 0.0\nsamples = 10\nvalue = [10, 0]"] ;
150 -> 160 ;
161 [label="Online <= 0.5\ngini = 0.109\nsamples = 69\nvalue = [65, 4]"] ;
125 -> 161 ;
162 [label="Income <= 161.0\ngini = 0.185\nsamples = 29\nvalue = [26, 3]"] ;
161 -> 162 ;
163 [label="gini = 0.0\nsamples = 14\nvalue = [14, 0]"] ;
162 -> 163 ;
164 [label="Income <= 162.5\ngini = 0.32\nsamples = 15\nvalue = [12, 3]"] ;
162 -> 164 ;
165 [label="gini = 0.0\nsamples = 1\nvalue = [0, 1]"] ;
164 -> 165 ;
166 [label="CCAvg <= 0.6\ngini = 0.245\nsamples = 14\nvalue = [12, 2]"] ;
164 -> 166 ;
167 [label="gini = 0.0\nsamples = 7\nvalue = [7, 0]"] ;
166 -> 167 ;
168 [label="CCAvg <= 0.85\ngini = 0.408\nsamples = 7\nvalue = [5, 2]"] ;
166 -> 168 ;
169 [label="gini = 0.0\nsamples = 1\nvalue = [0, 1]"] ;
168 -> 169 ;
170 [label="Income <= 182.0\ngini = 0.278\nsamples = 6\nvalue = [5, 1]"] ;
168 -> 170 ;
171 [label="Income <= 179.5\ngini = 0.444\nsamples = 3\nvalue = [2, 1]"] ;
170 -> 171 ;
172 [label="gini = 0.0\nsamples = 2\nvalue = [2, 0]"] ;
171 -> 172 ;
173 [label="gini = 0.0\nsamples = 1\nvalue = [0, 1]"] ;
171 -> 173 ;
174 [label="gini = 0.0\nsamples = 3\nvalue = [3, 0]"] ;
170 -> 174 ;
175 [label="CCAvg <= 1.75\ngini = 0.049\nsamples = 40\nvalue = [39, 1]"] ;
161 -> 175 ;
176 [label="gini = 0.0\nsamples = 31\nvalue = [31, 0]"] ;
175 -> 176 ;
177 [label="CCAvg <= 1.9\ngini = 0.198\nsamples = 9\nvalue = [8, 1]"] ;
175 -> 177 ;
178 [label="gini = 0.0\nsamples = 1\nvalue = [0, 1]"] ;
177 -> 178 ;
179 [label="gini = 0.0\nsamples = 8\nvalue = [8, 0]"] ;
177 -> 179 ;
180 [label="Income <= 157.5\ngini = 0.444\nsamples = 9\nvalue = [6, 3]"] ;
124 -> 180 ;
181 [label="CCAvg <= 2.65\ngini = 0.245\nsamples = 7\nvalue = [6, 1]"] ;
180 -> 181 ;
182 [label="Income <= 127.0\ngini = 0.5\nsamples = 2\nvalue = [1, 1]"] ;
181 -> 182 ;
183 [label="gini = 0.0\nsamples = 1\nvalue = [1, 0]"] ;
182 -> 183 ;
184 [label="gini = 0.0\nsamples = 1\nvalue = [0, 1]"] ;
182 -> 184 ;
185 [label="gini = 0.0\nsamples = 5\nvalue = [5, 0]"] ;
181 -> 185 ;
186 [label="gini = 0.0\nsamples = 2\nvalue = [0, 2]"] ;
180 -> 186 ;
187 [label="Income <= 122.5\ngini = 0.104\nsamples = 109\nvalue = [103, 6]"] ;
123 -> 187 ;
188 [label="gini = 0.0\nsamples = 1\nvalue = [0, 1]"] ;
187 -> 188 ;
189 [label="CCAvg <= 3.35\ngini = 0.088\nsamples = 108\nvalue = [103, 5]"] ;
187 -> 189 ;
190 [label="gini = 0.0\nsamples = 46\nvalue = [46, 0]"] ;
189 -> 190 ;
191 [label="Income <= 141.5\ngini = 0.148\nsamples = 62\nvalue = [57, 5]"] ;
189 -> 191 ;
192 [label="CCAvg <= 4.05\ngini = 0.053\nsamples = 37\nvalue = [36, 1]"] ;
191 -> 192 ;
193 [label="gini = 0.0\nsamples = 27\nvalue = [27, 0]"] ;
192 -> 193 ;
194 [label="CCAvg <= 4.2\ngini = 0.18\nsamples = 10\nvalue = [9, 1]"] ;
192 -> 194 ;
195 [label="gini = 0.0\nsamples = 1\nvalue = [0, 1]"] ;
194 -> 195 ;
196 [label="gini = 0.0\nsamples = 9\nvalue = [9, 0]"] ;
194 -> 196 ;
197 [label="CCAvg <= 3.45\ngini = 0.269\nsamples = 25\nvalue = [21, 4]"] ;
191 -> 197 ;
198 [label="gini = 0.0\nsamples = 1\nvalue = [0, 1]"] ;
197 -> 198 ;
199 [label="Income <= 142.5\ngini = 0.219\nsamples = 24\nvalue = [21, 3]"] ;
197 -> 199 ;
200 [label="CCAvg <= 4.05\ngini = 0.5\nsamples = 2\nvalue = [1, 1]"] ;
199 -> 200 ;
201 [label="gini = 0.0\nsamples = 1\nvalue = [1, 0]"] ;
200 -> 201 ;
202 [label="gini = 0.0\nsamples = 1\nvalue = [0, 1]"] ;
200 -> 202 ;
203 [label="Online <= 0.5\ngini = 0.165\nsamples = 22\nvalue = [20, 2]"] ;
199 -> 203 ;
204 [label="gini = 0.0\nsamples = 9\nvalue = [9, 0]"] ;
203 -> 204 ;
205 [label="Income <= 160.5\ngini = 0.26\nsamples = 13\nvalue = [11, 2]"] ;
203 -> 205 ;
206 [label="CCAvg <= 4.2\ngini = 0.346\nsamples = 9\nvalue = [7, 2]"] ;
205 -> 206 ;
207 [label="CCAvg <= 4.0\ngini = 0.444\nsamples = 6\nvalue = [4, 2]"] ;
206 -> 207 ;
208 [label="Income <= 157.5\ngini = 0.32\nsamples = 5\nvalue = [4, 1]"] ;
207 -> 208 ;
209 [label="gini = 0.0\nsamples = 4\nvalue = [4, 0]"] ;
208 -> 209 ;
210 [label="gini = 0.0\nsamples = 1\nvalue = [0, 1]"] ;
208 -> 210 ;
211 [label="gini = 0.0\nsamples = 1\nvalue = [0, 1]"] ;
207 -> 211 ;
212 [label="gini = 0.0\nsamples = 3\nvalue = [3, 0]"] ;
206 -> 212 ;
213 [label="gini = 0.0\nsamples = 4\nvalue = [4, 0]"] ;
205 -> 213 ;
214 [label="CCAvg <= 4.45\ngini = 0.258\nsamples = 92\nvalue = [78, 14]"] ;
116 -> 214 ;
215 [label="gini = 0.0\nsamples = 3\nvalue = [0, 3]"] ;
214 -> 215 ;
216 [label="Income <= 139.5\ngini = 0.217\nsamples = 89\nvalue = [78, 11]"] ;
214 -> 216 ;
217 [label="gini = 0.0\nsamples = 31\nvalue = [31, 0]"] ;
216 -> 217 ;
218 [label="Income <= 181.0\ngini = 0.307\nsamples = 58\nvalue = [47, 11]"] ;
216 -> 218 ;
219 [label="Online <= 0.5\ngini = 0.399\nsamples = 40\nvalue = [29, 11]"] ;
218 -> 219 ;
220 [label="Income <= 143.0\ngini = 0.488\nsamples = 19\nvalue = [11, 8]"] ;
219 -> 220 ;
221 [label="gini = 0.0\nsamples = 2\nvalue = [0, 2]"] ;
220 -> 221 ;
222 [label="Income <= 152.5\ngini = 0.457\nsamples = 17\nvalue = [11, 6]"] ;
220 -> 222 ;
223 [label="CCAvg <= 6.217\ngini = 0.245\nsamples = 7\nvalue = [6, 1]"] ;
222 -> 223 ;
224 [label="CCAvg <= 6.05\ngini = 0.375\nsamples = 4\nvalue = [3, 1]"] ;
223 -> 224 ;
225 [label="gini = 0.0\nsamples = 2\nvalue = [2, 0]"] ;
224 -> 225 ;
226 [label="Income <= 146.5\ngini = 0.5\nsamples = 2\nvalue = [1, 1]"] ;
224 -> 226 ;
227 [label="gini = 0.0\nsamples = 1\nvalue = [1, 0]"] ;
226 -> 227 ;
228 [label="gini = 0.0\nsamples = 1\nvalue = [0, 1]"] ;
226 -> 228 ;
229 [label="gini = 0.0\nsamples = 3\nvalue = [3, 0]"] ;
223 -> 229 ;
230 [label="CCAvg <= 5.2\ngini = 0.5\nsamples = 10\nvalue = [5, 5]"] ;
222 -> 230 ;
231 [label="gini = 0.0\nsamples = 2\nvalue = [2, 0]"] ;
230 -> 231 ;
232 [label="CCAvg <= 5.8\ngini = 0.469\nsamples = 8\nvalue = [3, 5]"] ;
230 -> 232 ;
233 [label="gini = 0.0\nsamples = 3\nvalue = [0, 3]"] ;
232 -> 233 ;
234 [label="Securities Account <= 0.5\ngini = 0.48\nsamples = 5\nvalue = [3, 2]"] ;
232 -> 234 ;
235 [label="CCAvg <= 6.217\ngini = 0.375\nsamples = 4\nvalue = [3, 1]"] ;
234 -> 235 ;
236 [label="CCAvg <= 6.05\ngini = 0.5\nsamples = 2\nvalue = [1, 1]"] ;
235 -> 236 ;
237 [label="gini = 0.0\nsamples = 1\nvalue = [1, 0]"] ;
236 -> 237 ;
238 [label="gini = 0.0\nsamples = 1\nvalue = [0, 1]"] ;
236 -> 238 ;
239 [label="gini = 0.0\nsamples = 2\nvalue = [2, 0]"] ;
235 -> 239 ;
240 [label="gini = 0.0\nsamples = 1\nvalue = [0, 1]"] ;
234 -> 240 ;
241 [label="Income <= 176.5\ngini = 0.245\nsamples = 21\nvalue = [18, 3]"] ;
219 -> 241 ;
242 [label="Income <= 146.0\ngini = 0.18\nsamples = 20\nvalue = [18, 2]"] ;
241 -> 242 ;
243 [label="CCAvg <= 5.0\ngini = 0.5\nsamples = 2\nvalue = [1, 1]"] ;
242 -> 243 ;
244 [label="gini = 0.0\nsamples = 1\nvalue = [1, 0]"] ;
243 -> 244 ;
245 [label="gini = 0.0\nsamples = 1\nvalue = [0, 1]"] ;
243 -> 245 ;
246 [label="Income <= 167.5\ngini = 0.105\nsamples = 18\nvalue = [17, 1]"] ;
242 -> 246 ;
247 [label="gini = 0.0\nsamples = 12\nvalue = [12, 0]"] ;
246 -> 247 ;
248 [label="Income <= 171.0\ngini = 0.278\nsamples = 6\nvalue = [5, 1]"] ;
246 -> 248 ;
249 [label="CCAvg <= 5.35\ngini = 0.5\nsamples = 2\nvalue = [1, 1]"] ;
248 -> 249 ;
250 [label="gini = 0.0\nsamples = 1\nvalue = [0, 1]"] ;
249 -> 250 ;
251 [label="gini = 0.0\nsamples = 1\nvalue = [1, 0]"] ;
249 -> 251 ;
252 [label="gini = 0.0\nsamples = 4\nvalue = [4, 0]"] ;
248 -> 252 ;
253 [label="gini = 0.0\nsamples = 1\nvalue = [0, 1]"] ;
241 -> 253 ;
254 [label="gini = 0.0\nsamples = 18\nvalue = [18, 0]"] ;
218 -> 254 ;
255 [label="gini = 0.0\nsamples = 1\nvalue = [0, 1]"] ;
115 -> 255 ;
256 [label="Income <= 183.5\ngini = 0.02\nsamples = 97\nvalue = [96, 1]"] ;
114 -> 256 ;
257 [label="gini = 0.0\nsamples = 81\nvalue = [81, 0]"] ;
256 -> 257 ;
258 [label="Income <= 186.5\ngini = 0.117\nsamples = 16\nvalue = [15, 1]"] ;
256 -> 258 ;
259 [label="CCAvg <= 8.05\ngini = 0.444\nsamples = 3\nvalue = [2, 1]"] ;
258 -> 259 ;
260 [label="gini = 0.0\nsamples = 1\nvalue = [0, 1]"] ;
259 -> 260 ;
261 [label="gini = 0.0\nsamples = 2\nvalue = [2, 0]"] ;
259 -> 261 ;
262 [label="gini = 0.0\nsamples = 13\nvalue = [13, 0]"] ;
258 -> 262 ;
263 [label="Income <= 167.0\ngini = 0.498\nsamples = 32\nvalue = [15, 17]"] ;
113 -> 263 ;
264 [label="Income <= 157.5\ngini = 0.486\nsamples = 24\nvalue = [14, 10]"] ;
263 -> 264 ;
265 [label="CCAvg <= 4.617\ngini = 0.499\nsamples = 21\nvalue = [11, 10]"] ;
264 -> 265 ;
266 [label="CCAvg <= 2.25\ngini = 0.426\nsamples = 13\nvalue = [9, 4]"] ;
265 -> 266 ;
267 [label="CCAvg <= 0.45\ngini = 0.49\nsamples = 7\nvalue = [3, 4]"] ;
266 -> 267 ;
268 [label="gini = 0.0\nsamples = 2\nvalue = [2, 0]"] ;
267 -> 268 ;
269 [label="Income <= 118.5\ngini = 0.32\nsamples = 5\nvalue = [1, 4]"] ;
267 -> 269 ;
270 [label="gini = 0.0\nsamples = 1\nvalue = [1, 0]"] ;
269 -> 270 ;
271 [label="gini = 0.0\nsamples = 4\nvalue = [0, 4]"] ;
269 -> 271 ;
272 [label="gini = 0.0\nsamples = 6\nvalue = [6, 0]"] ;
266 -> 272 ;
273 [label="CCAvg <= 5.55\ngini = 0.375\nsamples = 8\nvalue = [2, 6]"] ;
265 -> 273 ;
274 [label="gini = 0.0\nsamples = 4\nvalue = [0, 4]"] ;
273 -> 274 ;
275 [label="Income <= 120.5\ngini = 0.5\nsamples = 4\nvalue = [2, 2]"] ;
273 -> 275 ;
276 [label="gini = 0.0\nsamples = 1\nvalue = [1, 0]"] ;
275 -> 276 ;
277 [label="Income <= 143.0\ngini = 0.444\nsamples = 3\nvalue = [1, 2]"] ;
275 -> 277 ;
278 [label="gini = 0.0\nsamples = 2\nvalue = [0, 2]"] ;
277 -> 278 ;
279 [label="gini = 0.0\nsamples = 1\nvalue = [1, 0]"] ;
277 -> 279 ;
280 [label="gini = 0.0\nsamples = 3\nvalue = [3, 0]"] ;
264 -> 280 ;
281 [label="Income <= 207.0\ngini = 0.219\nsamples = 8\nvalue = [1, 7]"] ;
263 -> 281 ;
282 [label="gini = 0.0\nsamples = 7\nvalue = [0, 7]"] ;
281 -> 282 ;
283 [label="gini = 0.0\nsamples = 1\nvalue = [1, 0]"] ;
281 -> 283 ;
284 [label="Income <= 116.5\ngini = 0.106\nsamples = 268\nvalue = [15, 253]"] ;
112 -> 284 ;
285 [label="CCAvg <= 3.6\ngini = 0.469\nsamples = 24\nvalue = [15, 9]"] ;
284 -> 285 ;
286 [label="CCAvg <= 2.8\ngini = 0.332\nsamples = 19\nvalue = [15, 4]"] ;
285 -> 286 ;
287 [label="Education <= 2.5\ngini = 0.231\nsamples = 15\nvalue = [13, 2]"] ;
286 -> 287 ;
288 [label="gini = 0.0\nsamples = 6\nvalue = [6, 0]"] ;
287 -> 288 ;
289 [label="Online <= 0.5\ngini = 0.346\nsamples = 9\nvalue = [7, 2]"] ;
287 -> 289 ;
290 [label="gini = 0.0\nsamples = 1\nvalue = [0, 1]"] ;
289 -> 290 ;
291 [label="CCAvg <= 2.25\ngini = 0.219\nsamples = 8\nvalue = [7, 1]"] ;
289 -> 291 ;
292 [label="gini = 0.0\nsamples = 6\nvalue = [6, 0]"] ;
291 -> 292 ;
293 [label="gini = 0.5\nsamples = 2\nvalue = [1, 1]"] ;
291 -> 293 ;
294 [label="CCAvg <= 3.35\ngini = 0.5\nsamples = 4\nvalue = [2, 2]"] ;
286 -> 294 ;
295 [label="gini = 0.0\nsamples = 2\nvalue = [0, 2]"] ;
294 -> 295 ;
296 [label="gini = 0.0\nsamples = 2\nvalue = [2, 0]"] ;
294 -> 296 ;
297 [label="gini = 0.0\nsamples = 5\nvalue = [0, 5]"] ;
285 -> 297 ;
298 [label="gini = 0.0\nsamples = 244\nvalue = [0, 244]"] ;
284 -> 298 ;
}